The model is in standard ARPA format, designed by Doug Paul while he was at MITRE.

The code that was used to produce this language model is available in Open Source.
Please visit http://www.speech.cs.cmu.edu/tools/ for more information

The (fixed) discount mass is 0.5. The backoffs are computed using the ratio method.
This model based on a corpus of 5 sentences and 7 words

\data\
ngram 1=7
ngram 2=10
ngram 3=5

\1-grams:
-0.7782 </s> -0.3010
-0.7782 <s> -0.2218
-1.4771 向前 -0.2218
-1.4771 向右 -0.2218
-1.4771 向后 -0.2218
-1.4771 向左 -0.2218
-1.4771 现候 -0.2218

\2-grams:
-1.0000 <s> 向前 0.0000
-1.0000 <s> 向右 0.0000
-1.0000 <s> 向后 0.0000
-1.0000 <s> 向左 0.0000
-1.0000 <s> 现候 0.0000
-0.3010 向前 </s> -0.3010
-0.3010 向右 </s> -0.3010
-0.3010 向后 </s> -0.3010
-0.3010 向左 </s> -0.3010
-0.3010 现候 </s> -0.3010

\3-grams:
-0.3010 <s> 向前 </s>
-0.3010 <s> 向右 </s>
-0.3010 <s> 向后 </s>
-0.3010 <s> 向左 </s>
-0.3010 <s> 现候 </s>

\end\